<?xml version="1.0"?>
<opencv_storage>
<cascade>
  <stageType>BOOST</stageType>
  <featureType>HAAR</featureType>
  <height>24</height>
  <width>24</width>
  <stageParams>
    <boostType>GAB</boostType>
    <minHitRate>9.9500000476837158e-01</minHitRate>
    <maxFalseAlarm>5.0000000000000000e-01</maxFalseAlarm>
    <weightTrimRate>9.4999998807907104e-01</weightTrimRate>
    <maxDepth>1</maxDepth>
    <maxWeakCount>100</maxWeakCount></stageParams>
  <featureParams>
    <maxCatCount>0</maxCatCount>
    <featSize>1</featSize>
    <mode>BASIC</mode></featureParams>
  <stageNum>9</stageNum>
  <stages>
    <!-- stage 0 -->
    <_>
      <maxWeakCount>2</maxWeakCount>
      <stageThreshold>-5.3219985961914063e-01</stageThreshold>
      <weakClassifiers>
        <_>
          <internalNodes>
            0 -1 10 -9.6010372042655945e-02</internalNodes>
          <leafValues>
            7.3913043737411499e-01 -9.8007971048355103e-01</leafValues></_>
        <_>
          <internalNodes>
            0 -1 19 4.5315623283386230e-02</internalNodes>
          <leafValues>
            -9.9741041660308838e-01 4.4787982106208801e-01</leafValues></_></weakClassifiers></_>
    <!-- stage 1 -->
    <_>
      <maxWeakCount>3</maxWeakCount>
      <stageThreshold>-1.5429180860519409e+00</stageThreshold>
      <weakClassifiers>
        <_>
          <internalNodes>
            0 -1 15 3.0988144874572754e-01</internalNodes>
          <leafValues>
            -9.7389560937881470e-01 3.7037035822868347e-01</leafValues></_>
        <_>
          <internalNodes>
            0 -1 23 -8.2672998309135437e-02</internalNodes>
          <leafValues>
            3.5172152519226074e-01 -9.6042704582214355e-01</leafValues></_>
        <_>
          <internalNodes>
            0 -1 11 1.2284875661134720e-01</internalNodes>
          <leafValues>
            -9.2074406147003174e-01 4.2676967382431030e-01</leafValues></_></weakClassifiers></_>
    <!-- stage 2 -->
    <_>
      <maxWeakCount>3</maxWeakCount>
      <stageThreshold>-1.6325285434722900e+00</stageThreshold>
      <weakClassifiers>
        <_>
          <internalNodes>
            0 -1 16 2.3381069302558899e-01</internalNodes>
          <leafValues>
            -9.5472443103790283e-01 5.8823531866073608e-01</leafValues></_>
        <_>
          <internalNodes>
            0 -1 8 1.8004700541496277e-02</internalNodes>
          <leafValues>
            -9.4883185625076294e-01 1.4647650718688965e-01</leafValues></_>
        <_>
          <internalNodes>
            0 -1 14 1.6401411592960358e-01</internalNodes>
          <leafValues>
            -1. 2.7102768421173096e-01</leafValues></_></weakClassifiers></_>
    <!-- stage 3 -->
    <_>
      <maxWeakCount>4</maxWeakCount>
      <stageThreshold>-2.2786176204681396e+00</stageThreshold>
      <weakClassifiers>
        <_>
          <internalNodes>
            0 -1 6 -2.0912450551986694e-01</internalNodes>
          <leafValues>
            4.2857143282890320e-01 -9.4129157066345215e-01</leafValues></_>
        <_>
          <internalNodes>
            0 -1 8 1.9590022042393684e-02</internalNodes>
          <leafValues>
            -9.0332031250000000e-01 3.7532538175582886e-01</leafValues></_>
        <_>
          <internalNodes>
            0 -1 0 4.8587925732135773e-02</internalNodes>
          <leafValues>
            -9.0303266048431396e-01 4.0156951546669006e-01</leafValues></_>
        <_>
          <internalNodes>
            0 -1 20 2.6470806449651718e-02</internalNodes>
          <leafValues>
            -9.2659676074981689e-01 4.6902689337730408e-01</leafValues></_></weakClassifiers></_>
    <!-- stage 4 -->
    <_>
      <maxWeakCount>3</maxWeakCount>
      <stageThreshold>-1.7073773145675659e+00</stageThreshold>
      <weakClassifiers>
        <_>
          <internalNodes>
            0 -1 18 1.9567789137363434e-01</internalNodes>
          <leafValues>
            -9.4477319717407227e-01 2.2222222387790680e-01</leafValues></_>
        <_>
          <internalNodes>
            0 -1 7 1.0613574646413326e-02</internalNodes>
          <leafValues>
            -9.1199785470962524e-01 1.7378227412700653e-01</leafValues></_>
        <_>
          <internalNodes>
            0 -1 27 1.0078923776745796e-02</internalNodes>
          <leafValues>
            -9.3638640642166138e-01 2.7750170230865479e-01</leafValues></_></weakClassifiers></_>
    <!-- stage 5 -->
    <_>
      <maxWeakCount>3</maxWeakCount>
      <stageThreshold>-1.4761483669281006e+00</stageThreshold>
      <weakClassifiers>
        <_>
          <internalNodes>
            0 -1 3 4.9617286771535873e-02</internalNodes>
          <leafValues>
            -9.4123411178588867e-01 3.7931033968925476e-01</leafValues></_>
        <_>
          <internalNodes>
            0 -1 24 7.5793683528900146e-02</internalNodes>
          <leafValues>
            -8.4104144573211670e-01 4.5591503381729126e-01</leafValues></_>
        <_>
          <internalNodes>
            0 -1 1 4.3571498245000839e-02</internalNodes>
          <leafValues>
            -9.3374830484390259e-01 3.0612713098526001e-01</leafValues></_></weakClassifiers></_>
    <!-- stage 6 -->
    <_>
      <maxWeakCount>4</maxWeakCount>
      <stageThreshold>-1.9605516195297241e+00</stageThreshold>
      <weakClassifiers>
        <_>
          <internalNodes>
            0 -1 22 -6.5018385648727417e-02</internalNodes>
          <leafValues>
            9.0909093618392944e-02 -9.3706983327865601e-01</leafValues></_>
        <_>
          <internalNodes>
            0 -1 2 4.0984645485877991e-02</internalNodes>
          <leafValues>
            -7.7876400947570801e-01 4.1271209716796875e-01</leafValues></_>
        <_>
          <internalNodes>
            0 -1 12 3.6091193556785583e-01</internalNodes>
          <leafValues>
            -7.1521544456481934e-01 4.9564945697784424e-01</leafValues></_>
        <_>
          <internalNodes>
            0 -1 25 4.8893354833126068e-02</internalNodes>
          <leafValues>
            -5.5748128890991211e-01 6.3250172138214111e-01</leafValues></_></weakClassifiers></_>
    <!-- stage 7 -->
    <_>
      <maxWeakCount>5</maxWeakCount>
      <stageThreshold>-1.9872691631317139e+00</stageThreshold>
      <weakClassifiers>
        <_>
          <internalNodes>
            0 -1 16 2.3530219495296478e-01</internalNodes>
          <leafValues>
            -9.5334684848785400e-01 -1.5625000000000000e-01</leafValues></_>
        <_>
          <internalNodes>
            0 -1 13 1.8914571404457092e-01</internalNodes>
          <leafValues>
            -8.8441544771194458e-01 4.4636618345975876e-02</leafValues></_>
        <_>
          <internalNodes>
            0 -1 4 1.9742494449019432e-02</internalNodes>
          <leafValues>
            -8.2399004697799683e-01 1.9757422804832458e-01</leafValues></_>
        <_>
          <internalNodes>
            0 -1 9 1.1811950244009495e-03</internalNodes>
          <leafValues>
            -8.9092469215393066e-01 2.8063443303108215e-01</leafValues></_>
        <_>
          <internalNodes>
            0 -1 26 9.5261670649051666e-03</internalNodes>
          <leafValues>
            -7.9526901245117188e-01 3.9384877681732178e-01</leafValues></_></weakClassifiers></_>
    <!-- stage 8 -->
    <_>
      <maxWeakCount>5</maxWeakCount>
      <stageThreshold>-1.7697960138320923e+00</stageThreshold>
      <weakClassifiers>
        <_>
          <internalNodes>
            0 -1 28 -6.9203391671180725e-02</internalNodes>
          <leafValues>
            1. -9.2307692766189575e-01</leafValues></_>
        <_>
          <internalNodes>
            0 -1 29 -1.5221167355775833e-02</internalNodes>
          <leafValues>
            6.0573738813400269e-01 -7.4917840957641602e-01</leafValues></_>
        <_>
          <internalNodes>
            0 -1 17 3.3743932843208313e-02</internalNodes>
          <leafValues>
            -8.4271925687789917e-01 3.6938834190368652e-01</leafValues></_>
        <_>
          <internalNodes>
            0 -1 21 1.0602911561727524e-01</internalNodes>
          <leafValues>
            -9.2443603277206421e-01 3.0467694997787476e-01</leafValues></_>
        <_>
          <internalNodes>
            0 -1 5 1.0540468618273735e-02</internalNodes>
          <leafValues>
            -7.4539965391159058e-01 4.4050168991088867e-01</leafValues></_></weakClassifiers></_></stages>
  <features>
    <_>
      <rects>
        <_>
          0 8 8 16 -1.</_>
        <_>
          0 8 4 8 2.</_>
        <_>
          4 16 4 8 2.</_></rects>
      <tilted>0</tilted></_>
    <_>
      <rects>
        <_>
          0 10 8 14 -1.</_>
        <_>
          0 10 4 7 2.</_>
        <_>
          4 17 4 7 2.</_></rects>
      <tilted>0</tilted></_>
    <_>
      <rects>
        <_>
          0 12 6 12 -1.</_>
        <_>
          2 12 2 12 3.</_></rects>
      <tilted>0</tilted></_>
    <_>
      <rects>
        <_>
          0 14 4 10 -1.</_>
        <_>
          2 14 2 10 2.</_></rects>
      <tilted>0</tilted></_>
    <_>
      <rects>
        <_>
          1 0 3 12 -1.</_>
        <_>
          1 6 3 6 2.</_></rects>
      <tilted>0</tilted></_>
    <_>
      <rects>
        <_>
          1 0 7 4 -1.</_>
        <_>
          1 2 7 2 2.</_></rects>
      <tilted>0</tilted></_>
    <_>
      <rects>
        <_>
          1 7 12 10 -1.</_>
        <_>
          5 7 4 10 3.</_></rects>
      <tilted>0</tilted></_>
    <_>
      <rects>
        <_>
          2 0 2 6 -1.</_>
        <_>
          2 3 2 3 2.</_></rects>
      <tilted>0</tilted></_>
    <_>
      <rects>
        <_>
          2 0 4 6 -1.</_>
        <_>
          2 3 4 3 2.</_></rects>
      <tilted>0</tilted></_>
    <_>
      <rects>
        <_>
          2 8 8 4 -1.</_>
        <_>
          2 8 4 2 2.</_>
        <_>
          6 10 4 2 2.</_></rects>
      <tilted>0</tilted></_>
    <_>
      <rects>
        <_>
          3 3 9 14 -1.</_>
        <_>
          6 3 3 14 3.</_></rects>
      <tilted>0</tilted></_>
    <_>
      <rects>
        <_>
          4 11 14 12 -1.</_>
        <_>
          4 17 14 6 2.</_></rects>
      <tilted>0</tilted></_>
    <_>
      <rects>
        <_>
          5 2 13 22 -1.</_>
        <_>
          5 13 13 11 2.</_></rects>
      <tilted>0</tilted></_>
    <_>
      <rects>
        <_>
          6 0 12 14 -1.</_>
        <_>
          10 0 4 14 3.</_></rects>
      <tilted>0</tilted></_>
    <_>
      <rects>
        <_>
          6 0 12 24 -1.</_>
        <_>
          10 0 4 24 3.</_></rects>
      <tilted>0</tilted></_>
    <_>
      <rects>
        <_>
          6 4 12 20 -1.</_>
        <_>
          6 14 12 10 2.</_></rects>
      <tilted>0</tilted></_>
    <_>
      <rects>
        <_>
          6 5 12 12 -1.</_>
        <_>
          10 5 4 12 3.</_></rects>
      <tilted>0</tilted></_>
    <_>
      <rects>
        <_>
          6 8 8 4 -1.</_>
        <_>
          10 8 4 4 2.</_></rects>
      <tilted>0</tilted></_>
    <_>
      <rects>
        <_>
          7 7 12 9 -1.</_>
        <_>
          11 7 4 9 3.</_></rects>
      <tilted>0</tilted></_>
    <_>
      <rects>
        <_>
          8 7 9 8 -1.</_>
        <_>
          11 7 3 8 3.</_></rects>
      <tilted>0</tilted></_>
    <_>
      <rects>
        <_>
          9 8 7 8 -1.</_>
        <_>
          9 12 7 4 2.</_></rects>
      <tilted>0</tilted></_>
    <_>
      <rects>
        <_>
          12 6 6 18 -1.</_>
        <_>
          12 15 6 9 2.</_></rects>
      <tilted>0</tilted></_>
    <_>
      <rects>
        <_>
          14 9 9 5 -1.</_>
        <_>
          17 9 3 5 3.</_></rects>
      <tilted>0</tilted></_>
    <_>
      <rects>
        <_>
          15 4 8 20 -1.</_>
        <_>
          15 4 4 10 2.</_>
        <_>
          19 14 4 10 2.</_></rects>
      <tilted>0</tilted></_>
    <_>
      <rects>
        <_>
          16 4 2 20 -1.</_>
        <_>
          16 14 2 10 2.</_></rects>
      <tilted>0</tilted></_>
    <_>
      <rects>
        <_>
          17 0 7 8 -1.</_>
        <_>
          17 4 7 4 2.</_></rects>
      <tilted>0</tilted></_>
    <_>
      <rects>
        <_>
          17 2 6 10 -1.</_>
        <_>
          19 2 2 10 3.</_></rects>
      <tilted>0</tilted></_>
    <_>
      <rects>
        <_>
          19 0 4 6 -1.</_>
        <_>
          19 3 4 3 2.</_></rects>
      <tilted>0</tilted></_>
    <_>
      <rects>
        <_>
          19 7 4 17 -1.</_>
        <_>
          21 7 2 17 2.</_></rects>
      <tilted>0</tilted></_>
    <_>
      <rects>
        <_>
          22 12 2 12 -1.</_>
        <_>
          23 12 1 12 2.</_></rects>
      <tilted>0</tilted></_></features></cascade>
</opencv_storage>
